digraph Tree {
node [shape=box, style="filled, rounded", color="black", fontname=helvetica] ;
edge [fontname=helvetica] ;
0 [label="petal_width <= 0.8\ngini = 0.664\nsamples = 105\nvalue = [31, 37, 37]\nclass = versicolor", fillcolor="#ffffff"] ;
1 [label="gini = 0.0\nsamples = 31\nvalue = [31, 0, 0]\nclass = setosa", fillcolor="#e58139"] ;
0 -> 1 [labeldistance=2.5, labelangle=45, headlabel="True"] ;
2 [label="petal_length <= 4.75\ngini = 0.5\nsamples = 74\nvalue = [0, 37, 37]\nclass = versicolor", fillcolor="#ffffff"] ;
0 -> 2 [labeldistance=2.5, labelangle=-45, headlabel="False"] ;
3 [label="gini = 0.059\nsamples = 33\nvalue = [0, 32, 1]\nclass = versicolor", fillcolor="#3fe685"] ;
2 -> 3 ;
4 [label="gini = 0.214\nsamples = 41\nvalue = [0, 5, 36]\nclass = virginica", fillcolor="#9254e9"] ;
2 -> 4 ;
}